[{"stage": 1, "parameters": {"0": {"weights": [[[0.08675013482570648, -0.03297870606184006, 0.1436617076396942, -0.021386336535215378, 0.06719815731048584, -0.031994644552469254, 0.05414246767759323, 0.1886667162179947, 0.050388216972351074, 0.02211831510066986, -0.034040194004774094, -0.05971372872591019, -0.10575511306524277, -0.12519578635692596, -0.01872154511511326, 0.03513753041625023]], [[-0.021164607256650925, 0.047889988869428635, -0.13525323569774628, 0.042760565876960754, -0.08547625690698624, -0.0492490753531456, -0.1179865151643753, 0.013012232258915901, -0.058690398931503296, 0.12758229672908783, -0.012168397195637226, 0.05681547895073891, 0.08069352060556412, -0.07210619002580643, 0.06721716374158859, -0.04414072632789612], [0.1707434356212616, -0.034973617643117905, 0.04386782646179199, 0.034084755927324295, 0.0821237713098526, -0.0471087321639061, 0.035600390285253525, -0.031348928809165955, -0.028521697968244553, -0.0487680658698082, 0.1879367232322693, -0.09014736115932465, 0.19950981438159943, -0.1387835443019867, 0.1353091150522232, -0.007027154788374901], [-0.07841597497463226, -0.02930157445371151, 0.026426929980516434, -0.12018275260925293, -0.10203752666711807, 0.11633923649787903, -0.048849936574697495, -0.06537728756666183, 0.1967231035232544, -0.004649132024496794, -0.02943742834031582, 0.029572222381830215, 0.023028600960969925, -0.052107226103544235, -0.10402622073888779, 0.039146557450294495], [-0.053656816482543945, 0.022197147831320763, -0.03413988649845123, 0.04878676310181618, 0.04079849272966385, -0.021194592118263245, 0.026666630059480667, -0.11984089016914368, 0.01972847804427147, 0.05057268589735031, 0.06849326938390732, 0.1900428831577301, 0.18062332272529602, -0.1696712225675583, 0.02427109330892563, 0.12822072207927704], [0.07351025938987732, -0.02386344224214554, 0.13774767518043518, -0.01928887516260147, 0.04346199333667755, -0.05745590850710869, -0.07919853925704956, 0.004616614431142807, 0.014932025223970413, -0.020917300134897232, 0.039282023906707764, -0.19621942937374115, -0.018541166558861732, -0.04624677449464798, -0.036312635987997055, -0.04793542996048927], [0.03575849533081055, 0.06286736577749252, 0.12797239422798157, -0.1668163537979126, 0.039329469203948975, 0.07309705764055252, -0.028090987354516983, -0.07450856268405914, -0.09656188637018204, 0.06487943232059479, -0.03867275267839432, 0.08644433319568634, -0.027370335534214973, -0.012396524660289288, 0.16874943673610687, -0.10339880734682083], [0.04535084217786789, 0.06744590401649475, 0.02355530485510826, -0.012397192418575287, 0.13318558037281036, -0.053221721202135086, -0.0679231807589531, 0.10836745798587799, -0.04834722727537155, -0.08022444695234299, -0.09451288729906082, 0.14956052601337433, -0.009483137167990208, 0.04046563431620598, -0.025720903649926186, 0.03305604308843613], [-0.030312389135360718, 0.07231787592172623, -0.01912500336766243, 0.08456973731517792, -0.17782028019428253, -0.0605291947722435, -0.16321025788784027, 0.10849820822477341, -0.10813584178686142, 0.12953007221221924, 0.05501491576433182, 0.04937449097633362, 0.006122787017375231, 0.07745850086212158, -0.07213826477527618, -0.07766981422901154], [-0.1031336560845375, 0.011360397562384605, -0.15807494521141052, -0.04044751450419426, -0.05069436505436897, -0.09890042245388031, 0.020963681861758232, 0.09923207759857178, -0.08317749202251434, 0.07252953946590424, -0.0012808253522962332, 0.08475493639707565, 0.06724298745393753, -0.1047099158167839, -0.03923394903540611, 0.050916630774736404], [-0.021753495559096336, -0.058216992765665054, -0.04743087664246559, -0.17084991931915283, 0.07747168093919754, -0.011837176978588104, 0.09546468406915665, 0.013572498224675655, -0.1077941283583641, -0.007226775400340557, 0.070025235414505, -0.09556799381971359, -0.05533520132303238, -0.037131354212760925, -0.022467074915766716, -0.11581361293792725], [-0.11186438798904419, 0.02512482739984989, 0.0681036114692688, 0.0698503851890564, 0.025912700220942497, 0.04544570669531822, 0.1750829517841339, 0.03913014009594917, 0.026296069845557213, -0.07458914816379547, -0.03708598390221596, 0.08698909729719162, 0.05302170664072037, -0.04230734705924988, -0.13874244689941406, -0.06366917490959167], [-0.1374916434288025, 0.024499157443642616, 0.12208489328622818, 0.023479454219341278, -0.19982895255088806, -0.0207494106143713, 0.06835784763097763, -0.10346952825784683, 0.1326143592596054, -0.08845013380050659, 0.023538148030638695, 0.05743097886443138, -0.13293376564979553, 0.1901887059211731, 0.12045402824878693, 0.09887354075908661], [0.06036490201950073, -0.03852963447570801, -0.10613548755645752, -0.13352155685424805, -0.1426135152578354, -0.1661527305841446, 0.06444596499204636, -0.10736348479986191, 0.1502813696861267, 0.0063629308715462685, 0.005217916797846556, 0.1066443920135498, -0.014911362901329994, 0.06987892091274261, -0.010300557129085064, -0.08180636912584305], [-0.009417925029993057, -0.028313670307397842, -0.1305353343486786, 0.11692309379577637, 0.06856062263250351, 0.16391506791114807, -0.050656385719776154, 0.026915058493614197, -0.05579035356640816, 0.03637325391173363, -0.14023062586784363, -0.08761896938085556, -0.06305871158838272, 0.16642174124717712, 0.10288491100072861, 0.07039515674114227], [-0.17571990191936493, -0.07090720534324646, -0.10537312179803848, -0.056847818195819855, -0.13861069083213806, -0.0526711530983448, 0.0052597010508179665, 0.1119486391544342, -0.1422523707151413, 0.17297962307929993, 0.03081635572016239, 0.006852538790553808, -0.004150152672082186, -0.006349261850118637, -0.11478022485971451, 0.06407247483730316], [0.14263667166233063, -0.060260798782110214, 0.040678080171346664, -0.098574697971344, 0.05361395701766014, 0.059660423547029495, -0.04906218871474266, 0.1608656644821167, 0.05290504917502403, -0.0036986027844250202, -0.10720381885766983, 0.155889093875885, -0.117857925593853, 0.1383192390203476, -0.06956995278596878, -0.10901827365159988]], [[0.08614002168178558], [0.11576461791992188], [0.05248173698782921], [0.14085562527179718], [0.15099871158599854], [0.0030946352053433657], [-0.10002783685922623], [0.17301063239574432], [0.03164348378777504], [-0.15062867105007172], [0.016635239124298096], [-0.12006447464227676], [0.020269202068448067], [-0.023340977728366852], [-0.029127195477485657], [0.02413107454776764]]], "bias": [[0.10180536657571793, 0.09933403134346008, 0.10180110484361649, 0.10066749900579453, 0.09820368885993958, 0.10066717863082886, 0.09820627421140671, 0.09823470562696457, 0.0992417111992836, 0.09820803999900818, 0.10000000149011612, 0.10000000149011612, 0.10000000149011612, 0.10000000149011612, 0.10066796839237213, 0.10174611955881119], [0.09933293610811234, 0.09820276498794556, 0.09933323413133621, 0.09935057163238525, 0.10000000149011612, 0.09934350848197937, 0.10000000149011612, 0.09820237010717392, 0.09932275861501694, 0.10179909318685532, 0.09820856153964996, 0.10179928690195084, 0.09820731729269028, 0.1006738618016243, 0.10000000149011612, 0.09933554381132126], [0.09820171445608139]]}}}, {"stage": 2, "parameters": {"0": {"weights": [[[0.0731423944234848, -0.19550037384033203, -4.525685653788969e-05, 0.19290319085121155, -0.07434837520122528, 0.002074173651635647, -0.035636208951473236, -0.012085379101336002]], [[-0.0026883725076913834], [-0.12305239588022232], [-0.005934142507612705], [-0.15033085644245148], [0.03894627466797829], [-0.009468598291277885], [0.10701657831668854], [0.04217493161559105]]], "bias": [[[0.0731423944234848, -0.19550037384033203, -4.525685653788969e-05, 0.19290319085121155, -0.07434837520122528, 0.002074173651635647, -0.035636208951473236, -0.012085379101336002]], [[-0.0026883725076913834], [-0.12305239588022232], [-0.005934142507612705], [-0.15033085644245148], [0.03894627466797829], [-0.009468598291277885], [0.10701657831668854], [0.04217493161559105]]]}}}]